<?xml version="1.0"?>
<opencv_storage>
<cascade>
  <stageType>BOOST</stageType>
  <featureType>LBP</featureType>
  <height>24</height>
  <width>24</width>
  <stageParams>
    <boostType>GAB</boostType>
    <minHitRate>9.9500000476837158e-01</minHitRate>
    <maxFalseAlarm>5.0000000000000000e-01</maxFalseAlarm>
    <weightTrimRate>9.4999999999999996e-01</weightTrimRate>
    <maxDepth>1</maxDepth>
    <maxWeakCount>100</maxWeakCount></stageParams>
  <featureParams>
    <maxCatCount>256</maxCatCount>
    <featSize>1</featSize></featureParams>
  <stageNum>12</stageNum>
  <stages>
    <!-- stage 0 -->
    <_>
      <maxWeakCount>2</maxWeakCount>
      <stageThreshold>-8.8795498013496399e-02</stageThreshold>
      <weakClassifiers>
        <_>
          <internalNodes>
            0 -1 18 -776866322 1439941585 -1860840969 -237912045
            -1002321458 -1347893058 -863794950 -3585</internalNodes>
          <leafValues>
            -8.9803218841552734e-01 8.5885369777679443e-01</leafValues></_>
        <_>
          <internalNodes>
            0 -1 7 -3220776 -3145472 -1786421761 -33603565 -326590248
            -2013249280 -909907781 -262149</internalNodes>
          <leafValues>
            -8.9430481195449829e-01 8.0923670530319214e-01</leafValues></_></weakClassifiers></_>
    <!-- stage 1 -->
    <_>
      <maxWeakCount>3</maxWeakCount>
      <stageThreshold>-8.9998406171798706e-01</stageThreshold>
      <weakClassifiers>
        <_>
          <internalNodes>
            0 -1 10 -246153234 -184308214 -801009411 -42736182
            -671629313 -556902 -251688705 -68157445</internalNodes>
          <leafValues>
            -8.5950410366058350e-01 7.8130215406417847e-01</leafValues></_>
        <_>
          <internalNodes>
            0 -1 15 -18819596 -135194411 -669983777 -36228336 -108483073
            -37814627 -1196897313 -33556293</internalNodes>
          <leafValues>
            -7.9775518178939819e-01 8.0240923166275024e-01</leafValues></_>
        <_>
          <internalNodes>
            0 -1 27 -67962882 2033329559 -607587080 -150750550
            -101714434 -73825313 -70303494 -4197397</internalNodes>
          <leafValues>
            -8.4288918972015381e-01 7.6895046234130859e-01</leafValues></_></weakClassifiers></_>
    <!-- stage 2 -->
    <_>
      <maxWeakCount>3</maxWeakCount>
      <stageThreshold>-9.9188625812530518e-01</stageThreshold>
      <weakClassifiers>
        <_>
          <internalNodes>
            0 -1 22 -6293505 -61538441 -138544130 -983310 -658638988
            -868942027 -104989444 -50987529</internalNodes>
          <leafValues>
            -8.4311884641647339e-01 7.3415130376815796e-01</leafValues></_>
        <_>
          <internalNodes>
            0 -1 4 -1117198 -209186254 -381070883 -69263360 -1903365137
            -1074548228 -406142021 -302341</internalNodes>
          <leafValues>
            -8.1052786111831665e-01 7.5217181444168091e-01</leafValues></_>
        <_>
          <internalNodes>
            0 -1 24 -145752852 -2272060 -335030019 -573587259 -53478993
            -35825215 -335546117 -33565953</internalNodes>
          <leafValues>
            -8.5023605823516846e-01 6.6176044940948486e-01</leafValues></_></weakClassifiers></_>
    <!-- stage 3 -->
    <_>
      <maxWeakCount>2</maxWeakCount>
      <stageThreshold>-1.6175116598606110e-01</stageThreshold>
      <weakClassifiers>
        <_>
          <internalNodes>
            0 -1 32 -137364496 -2633217 -166597694 -714351229 -69230676
            -19942533 -1881166142 -344981657</internalNodes>
          <leafValues>
            -8.2966774702072144e-01 7.2753387689590454e-01</leafValues></_>
        <_>
          <internalNodes>
            0 -1 12 -572852740 -70060577 -571935496 -1146898182 33525247
            -1096298597 -570487090 -67122465</internalNodes>
          <leafValues>
            -8.6923533678054810e-01 6.6791659593582153e-01</leafValues></_></weakClassifiers></_>
    <!-- stage 4 -->
    <_>
      <maxWeakCount>3</maxWeakCount>
      <stageThreshold>-9.5331704616546631e-01</stageThreshold>
      <weakClassifiers>
        <_>
          <internalNodes>
            0 -1 3 -100467982 -216868937 -2040321 -543687371 -16518913
            -67125839 -4197121 -2099765</internalNodes>
          <leafValues>
            -7.6750451326370239e-01 7.2890025377273560e-01</leafValues></_>
        <_>
          <internalNodes>
            0 -1 19 -65539 -656523 -1086809156 -198794 -285697089
            -126554267 -840565572 -864682122</internalNodes>
          <leafValues>
            -8.5960918664932251e-01 6.4388370513916016e-01</leafValues></_>
        <_>
          <internalNodes>
            0 -1 28 -18874440 -2630657 -140510417 -5249137 -1567890263
            833827115 -1565544529 -134219841</internalNodes>
          <leafValues>
            -8.2082039117813110e-01 6.7379659414291382e-01</leafValues></_></weakClassifiers></_>
    <!-- stage 5 -->
    <_>
      <maxWeakCount>3</maxWeakCount>
      <stageThreshold>-9.0894860029220581e-01</stageThreshold>
      <weakClassifiers>
        <_>
          <internalNodes>
            0 -1 30 -503135541 -69489201 -211297281 -6034161 -498876210
            -72692617 -898178342 -79959541</internalNodes>
          <leafValues>
            -7.7839082479476929e-01 7.0571070909500122e-01</leafValues></_>
        <_>
          <internalNodes>
            0 -1 13 -781131777 1561378812 -12656642 -590506 -1663451137
            -53154312 -118640652 -33623087</internalNodes>
          <leafValues>
            -7.5045090913772583e-01 7.2368645668029785e-01</leafValues></_>
        <_>
          <internalNodes>
            0 -1 14 -570494996 -136774195 -917542 -789637 -872116310
            -51315468 -573178881 -101460737</internalNodes>
          <leafValues>
            -8.5955178737640381e-01 6.1989307403564453e-01</leafValues></_></weakClassifiers></_>
    <!-- stage 6 -->
    <_>
      <maxWeakCount>3</maxWeakCount>
      <stageThreshold>-8.3137118816375732e-01</stageThreshold>
      <weakClassifiers>
        <_>
          <internalNodes>
            0 -1 5 1561722847 -552423619 -4407300 -4800514 -18874884
            -592393052 -7344652 -34668568</internalNodes>
          <leafValues>
            -7.5596576929092407e-01 7.1355718374252319e-01</leafValues></_>
        <_>
          <internalNodes>
            0 -1 9 -71050 -235871999 -3479605 -6355199 -67635265
            603128041 -70014293 -201332881</internalNodes>
          <leafValues>
            -7.9068362712860107e-01 6.3253152370452881e-01</leafValues></_>
        <_>
          <internalNodes>
            0 -1 29 -1094713421 -1356665950 -15 -80 -1111493135
            -1413742669 -1644167941 -877658885</internalNodes>
          <leafValues>
            -7.0793688297271729e-01 7.3839396238327026e-01</leafValues></_></weakClassifiers></_>
    <!-- stage 7 -->
    <_>
      <maxWeakCount>4</maxWeakCount>
      <stageThreshold>-3.8282001018524170e-01</stageThreshold>
      <weakClassifiers>
        <_>
          <internalNodes>
            0 -1 1 -1331814232 -136449163 -1183613121 -201460739
            -219354113 -70209 -85655809 -67376193</internalNodes>
          <leafValues>
            -8.0000001192092896e-01 6.3836479187011719e-01</leafValues></_>
        <_>
          <internalNodes>
            0 -1 31 -352338177 -681886025 1218332183 -67944649 712994335
            -117757058 -1570510281 -499436009</internalNodes>
          <leafValues>
            -7.4899244308471680e-01 6.3140314817428589e-01</leafValues></_>
        <_>
          <internalNodes>
            0 -1 26 -546312956 -549980911 -71303170 -10321 -805315073
            -264513 1291842814 -769</internalNodes>
          <leafValues>
            -8.2757389545440674e-01 5.7054501771926880e-01</leafValues></_>
        <_>
          <internalNodes>
            0 -1 16 -235210758 -33820419 -1624567873 -67383361 -34120197
            -1090269941 -14983205 -819998965</internalNodes>
          <leafValues>
            -7.8476822376251221e-01 6.2468057870864868e-01</leafValues></_></weakClassifiers></_>
    <!-- stage 8 -->
    <_>
      <maxWeakCount>3</maxWeakCount>
      <stageThreshold>-7.8677612543106079e-01</stageThreshold>
      <weakClassifiers>
        <_>
          <internalNodes>
            0 -1 11 -666114 -2752722 -8710 -177082477 -18874369
            -34211841 -1345089825 -202244097</internalNodes>
          <leafValues>
            -8.5193020105361938e-01 6.0044723749160767e-01</leafValues></_>
        <_>
          <internalNodes>
            0 -1 25 -344465629 -1079792230 -4358157 -4185 -420616277
            -2046980401 -117457733 -1663045750</internalNodes>
          <leafValues>
            -7.1044224500656128e-01 6.7450940608978271e-01</leafValues></_>
        <_>
          <internalNodes>
            0 -1 21 -1 -83951617 -1 -33558277 -2057 -1163201067
            -67896326 -68683557</internalNodes>
          <leafValues>
            -6.0935539007186890e-01 7.9141783714294434e-01</leafValues></_></weakClassifiers></_>
    <!-- stage 9 -->
    <_>
      <maxWeakCount>3</maxWeakCount>
      <stageThreshold>-8.2602638006210327e-01</stageThreshold>
      <weakClassifiers>
        <_>
          <internalNodes>
            0 -1 0 -1429278977 -882972074 -554773962 -1325468662
            -757669989 -84214178 -53755157 -69665</internalNodes>
          <leafValues>
            -7.2723191976547241e-01 6.9125801324844360e-01</leafValues></_>
        <_>
          <internalNodes>
            0 -1 8 -18573 2147432243 -1116749 -35021 -1498501197
            -1358956749 -1360074829 -940579021</internalNodes>
          <leafValues>
            -6.4928781986236572e-01 7.4254703521728516e-01</leafValues></_>
        <_>
          <internalNodes>
            0 -1 17 -61803148 -40251403 2136997845 1945451479
            -1396968961 -4196417 -1459619078 -1347212622</internalNodes>
          <leafValues>
            -8.4134149551391602e-01 6.0671931505203247e-01</leafValues></_></weakClassifiers></_>
    <!-- stage 10 -->
    <_>
      <maxWeakCount>2</maxWeakCount>
      <stageThreshold>-1.8594203889369965e-01</stageThreshold>
      <weakClassifiers>
        <_>
          <internalNodes>
            0 -1 33 -813727931 -275416945 -678273413 -3089 -13731827
            -34615562 -269770624 -1081553</internalNodes>
          <leafValues>
            -7.4483710527420044e-01 6.7766177654266357e-01</leafValues></_>
        <_>
          <internalNodes>
            0 -1 23 -322962194 -650135762 -859030468 1964487799
            -1430276676 -386285456 -575678981 -12717595</internalNodes>
          <leafValues>
            -8.5541397333145142e-01 5.5889505147933960e-01</leafValues></_></weakClassifiers></_>
    <!-- stage 11 -->
    <_>
      <maxWeakCount>3</maxWeakCount>
      <stageThreshold>-7.6620054244995117e-01</stageThreshold>
      <weakClassifiers>
        <_>
          <internalNodes>
            0 -1 2 -536897295 -537535243 -1347699713 -318505234 -524609
            1052450039 -1 -286786322</internalNodes>
          <leafValues>
            -6.6334164142608643e-01 7.3616236448287964e-01</leafValues></_>
        <_>
          <internalNodes>
            0 -1 20 -778445837 -1252663297 -922524167 -39197806
            -80627542 -47263834 -1154634821 -15732181</internalNodes>
          <leafValues>
            -6.7912453413009644e-01 7.0825946331024170e-01</leafValues></_>
        <_>
          <internalNodes>
            0 -1 6 -2088743924 796772197 -185297921 -11143279 1123567935
            -6881385 -303759365 -725542</internalNodes>
          <leafValues>
            -8.1012004613876343e-01 5.7626563310623169e-01</leafValues></_></weakClassifiers></_></stages>
  <features>
    <_>
      <rect>
        0 0 1 8</rect></_>
    <_>
      <rect>
        0 0 8 2</rect></_>
    <_>
      <rect>
        0 14 6 3</rect></_>
    <_>
      <rect>
        2 0 5 3</rect></_>
    <_>
      <rect>
        2 3 4 2</rect></_>
    <_>
      <rect>
        2 21 7 1</rect></_>
    <_>
      <rect>
        3 0 6 1</rect></_>
    <_>
      <rect>
        3 12 6 3</rect></_>
    <_>
      <rect>
        5 6 1 3</rect></_>
    <_>
      <rect>
        5 8 2 3</rect></_>
    <_>
      <rect>
        6 7 3 2</rect></_>
    <_>
      <rect>
        6 8 3 2</rect></_>
    <_>
      <rect>
        6 10 2 3</rect></_>
    <_>
      <rect>
        6 21 5 1</rect></_>
    <_>
      <rect>
        7 14 3 2</rect></_>
    <_>
      <rect>
        7 18 3 2</rect></_>
    <_>
      <rect>
        8 14 3 3</rect></_>
    <_>
      <rect>
        8 18 3 2</rect></_>
    <_>
      <rect>
        9 7 3 2</rect></_>
    <_>
      <rect>
        9 8 2 2</rect></_>
    <_>
      <rect>
        9 8 5 3</rect></_>
    <_>
      <rect>
        9 9 2 2</rect></_>
    <_>
      <rect>
        9 10 2 1</rect></_>
    <_>
      <rect>
        9 14 3 2</rect></_>
    <_>
      <rect>
        10 5 3 3</rect></_>
    <_>
      <rect>
        10 18 4 1</rect></_>
    <_>
      <rect>
        12 7 2 2</rect></_>
    <_>
      <rect>
        12 10 2 3</rect></_>
    <_>
      <rect>
        13 8 2 3</rect></_>
    <_>
      <rect>
        13 18 2 1</rect></_>
    <_>
      <rect>
        16 1 2 5</rect></_>
    <_>
      <rect>
        16 4 1 4</rect></_>
    <_>
      <rect>
        18 2 2 7</rect></_>
    <_>
      <rect>
        21 3 1 5</rect></_></features></cascade>
</opencv_storage>
